digraph Tree {
node [shape=box, style="filled, rounded", color="black", fontname=helvetica] ;
edge [fontname=helvetica] ;
0 [label="Pclass <= 2.5\ngini = 0.47\nsamples = 466\nvalue = [446, 265]", fillcolor="#f4ccaf"] ;
1 [label="FaixaFare <= 0.5\ngini = 0.5\nsamples = 202\nvalue = [144, 161]", fillcolor="#eaf5fc"] ;
0 -> 1 [labeldistance=2.5, labelangle=45, headlabel="True"] ;
2 [label="Sozinho <= 0.5\ngini = 0.49\nsamples = 132\nvalue = [113, 92]", fillcolor="#fae8da"] ;
1 -> 2 ;
3 [label="FaixaIdade <= 1.5\ngini = 0.49\nsamples = 43\nvalue = [30, 40]", fillcolor="#cee6f8"] ;
2 -> 3 ;
4 [label="Familia <= 5.5\ngini = 0.38\nsamples = 22\nvalue = [26, 9]", fillcolor="#eead7e"] ;
3 -> 4 ;
5 [label="Embarked <= 0.5\ngini = 0.41\nsamples = 19\nvalue = [22, 9]", fillcolor="#f0b58a"] ;
4 -> 5 ;
6 [label="FaixaIdade <= 0.5\ngini = 0.35\nsamples = 4\nvalue = [7, 2]", fillcolor="#eca572"] ;
5 -> 6 ;
7 [label="Sex <= 0.5\ngini = 0.48\nsamples = 2\nvalue = [3, 2]", fillcolor="#f6d5bd"] ;
6 -> 7 ;
8 [label="gini = 0.0\nsamples = 1\nvalue = [3, 0]", fillcolor="#e58139"] ;
7 -> 8 ;
9 [label="gini = 0.0\nsamples = 1\nvalue = [0, 2]", fillcolor="#399de5"] ;
7 -> 9 ;
10 [label="gini = 0.0\nsamples = 2\nvalue = [4, 0]", fillcolor="#e58139"] ;
6 -> 10 ;
11 [label="FaixaIdade <= 0.5\ngini = 0.43\nsamples = 15\nvalue = [15, 7]", fillcolor="#f1bc95"] ;
5 -> 11 ;
12 [label="Sex <= 0.5\ngini = 0.5\nsamples = 7\nvalue = [4, 4]", fillcolor="#ffffff"] ;
11 -> 12 ;
13 [label="gini = 0.0\nsamples = 3\nvalue = [4, 0]", fillcolor="#e58139"] ;
12 -> 13 ;
14 [label="gini = 0.0\nsamples = 4\nvalue = [0, 4]", fillcolor="#399de5"] ;
12 -> 14 ;
15 [label="Sex <= 0.5\ngini = 0.34\nsamples = 8\nvalue = [11, 3]", fillcolor="#eca36f"] ;
11 -> 15 ;
16 [label="gini = 0.15\nsamples = 6\nvalue = [11, 1]", fillcolor="#e78c4b"] ;
15 -> 16 ;
17 [label="gini = 0.0\nsamples = 2\nvalue = [0, 2]", fillcolor="#399de5"] ;
15 -> 17 ;
18 [label="gini = 0.0\nsamples = 3\nvalue = [4, 0]", fillcolor="#e58139"] ;
4 -> 18 ;
19 [label="Sex <= 0.5\ngini = 0.2\nsamples = 21\nvalue = [4, 31]", fillcolor="#53aae8"] ;
3 -> 19 ;
20 [label="FaixaIdade <= 2.5\ngini = 0.48\nsamples = 7\nvalue = [4, 6]", fillcolor="#bddef6"] ;
19 -> 20 ;
21 [label="gini = 0.0\nsamples = 2\nvalue = [2, 0]", fillcolor="#e58139"] ;
20 -> 21 ;
22 [label="FaixaIdade <= 5.5\ngini = 0.38\nsamples = 5\nvalue = [2, 6]", fillcolor="#7bbeee"] ;
20 -> 22 ;
23 [label="gini = 0.0\nsamples = 4\nvalue = [0, 6]", fillcolor="#399de5"] ;
22 -> 23 ;
24 [label="gini = 0.0\nsamples = 1\nvalue = [2, 0]", fillcolor="#e58139"] ;
22 -> 24 ;
25 [label="gini = 0.0\nsamples = 14\nvalue = [0, 25]", fillcolor="#399de5"] ;
19 -> 25 ;
26 [label="Familia <= 18.5\ngini = 0.47\nsamples = 89\nvalue = [83, 52]", fillcolor="#f5d0b5"] ;
2 -> 26 ;
27 [label="Sex <= 0.5\ngini = 0.47\nsamples = 87\nvalue = [83, 50]", fillcolor="#f5cdb0"] ;
26 -> 27 ;
28 [label="Pclass <= 1.5\ngini = 0.38\nsamples = 70\nvalue = [80, 28]", fillcolor="#eead7e"] ;
27 -> 28 ;
29 [label="Embarked <= 0.5\ngini = 0.46\nsamples = 38\nvalue = [37, 20]", fillcolor="#f3c5a4"] ;
28 -> 29 ;
30 [label="FaixaIdade <= 0.5\ngini = 0.43\nsamples = 11\nvalue = [11, 5]", fillcolor="#f1ba93"] ;
29 -> 30 ;
31 [label="gini = 0.0\nsamples = 3\nvalue = [6, 0]", fillcolor="#e58139"] ;
30 -> 31 ;
32 [label="gini = 0.5\nsamples = 8\nvalue = [5, 5]", fillcolor="#ffffff"] ;
30 -> 32 ;
33 [label="Familia <= 9.0\ngini = 0.46\nsamples = 27\nvalue = [26, 15]", fillcolor="#f4caab"] ;
29 -> 33 ;
34 [label="gini = 0.47\nsamples = 26\nvalue = [24, 15]", fillcolor="#f5d0b5"] ;
33 -> 34 ;
35 [label="gini = 0.0\nsamples = 1\nvalue = [2, 0]", fillcolor="#e58139"] ;
33 -> 35 ;
36 [label="Familia <= 3.5\ngini = 0.26\nsamples = 32\nvalue = [43, 8]", fillcolor="#ea985e"] ;
28 -> 36 ;
37 [label="Embarked <= 0.5\ngini = 0.21\nsamples = 31\nvalue = [43, 6]", fillcolor="#e99355"] ;
36 -> 37 ;
38 [label="gini = 0.44\nsamples = 2\nvalue = [1, 2]", fillcolor="#9ccef2"] ;
37 -> 38 ;
39 [label="gini = 0.16\nsamples = 29\nvalue = [42, 4]", fillcolor="#e78d4c"] ;
37 -> 39 ;
40 [label="gini = 0.0\nsamples = 1\nvalue = [0, 2]", fillcolor="#399de5"] ;
36 -> 40 ;
41 [label="Embarked <= 0.5\ngini = 0.21\nsamples = 17\nvalue = [3, 22]", fillcolor="#54aae9"] ;
27 -> 41 ;
42 [label="Pclass <= 1.5\ngini = 0.5\nsamples = 2\nvalue = [1, 1]", fillcolor="#ffffff"] ;
41 -> 42 ;
43 [label="gini = 0.0\nsamples = 1\nvalue = [1, 0]", fillcolor="#e58139"] ;
42 -> 43 ;
44 [label="gini = 0.0\nsamples = 1\nvalue = [0, 1]", fillcolor="#399de5"] ;
42 -> 44 ;
45 [label="Familia <= 9.0\ngini = 0.16\nsamples = 15\nvalue = [2, 21]", fillcolor="#4ca6e7"] ;
41 -> 45 ;
46 [label="FaixaIdade <= 0.5\ngini = 0.17\nsamples = 14\nvalue = [2, 19]", fillcolor="#4ea7e8"] ;
45 -> 46 ;
47 [label="gini = 0.0\nsamples = 5\nvalue = [0, 8]", fillcolor="#399de5"] ;
46 -> 47 ;
48 [label="gini = 0.26\nsamples = 9\nvalue = [2, 11]", fillcolor="#5dafea"] ;
46 -> 48 ;
49 [label="gini = 0.0\nsamples = 1\nvalue = [0, 2]", fillcolor="#399de5"] ;
45 -> 49 ;
50 [label="gini = 0.0\nsamples = 2\nvalue = [0, 2]", fillcolor="#399de5"] ;
26 -> 50 ;
51 [label="Embarked <= 0.5\ngini = 0.43\nsamples = 70\nvalue = [31, 69]", fillcolor="#92c9f1"] ;
1 -> 51 ;
52 [label="Sex <= 0.5\ngini = 0.29\nsamples = 29\nvalue = [7, 33]", fillcolor="#63b2eb"] ;
51 -> 52 ;
53 [label="FaixaIdade <= 0.5\ngini = 0.5\nsamples = 12\nvalue = [7, 8]", fillcolor="#e6f3fc"] ;
52 -> 53 ;
54 [label="Sozinho <= 0.5\ngini = 0.47\nsamples = 7\nvalue = [5, 3]", fillcolor="#f5cdb0"] ;
53 -> 54 ;
55 [label="FaixaFare <= 2.5\ngini = 0.48\nsamples = 4\nvalue = [3, 2]", fillcolor="#f6d5bd"] ;
54 -> 55 ;
56 [label="gini = 0.5\nsamples = 3\nvalue = [2, 2]", fillcolor="#ffffff"] ;
55 -> 56 ;
57 [label="gini = 0.0\nsamples = 1\nvalue = [1, 0]", fillcolor="#e58139"] ;
55 -> 57 ;
58 [label="FaixaFare <= 2.0\ngini = 0.44\nsamples = 3\nvalue = [2, 1]", fillcolor="#f2c09c"] ;
54 -> 58 ;
59 [label="gini = 0.5\nsamples = 2\nvalue = [1, 1]", fillcolor="#ffffff"] ;
58 -> 59 ;
60 [label="gini = 0.0\nsamples = 1\nvalue = [1, 0]", fillcolor="#e58139"] ;
58 -> 60 ;
61 [label="FaixaIdade <= 4.5\ngini = 0.41\nsamples = 5\nvalue = [2, 5]", fillcolor="#88c4ef"] ;
53 -> 61 ;
62 [label="Familia <= 5.5\ngini = 0.28\nsamples = 4\nvalue = [1, 5]", fillcolor="#61b1ea"] ;
61 -> 62 ;
63 [label="FaixaFare <= 4.0\ngini = 0.38\nsamples = 3\nvalue = [1, 3]", fillcolor="#7bbeee"] ;
62 -> 63 ;
64 [label="gini = 0.5\nsamples = 2\nvalue = [1, 1]", fillcolor="#ffffff"] ;
63 -> 64 ;
65 [label="gini = 0.0\nsamples = 1\nvalue = [0, 2]", fillcolor="#399de5"] ;
63 -> 65 ;
66 [label="gini = 0.0\nsamples = 1\nvalue = [0, 2]", fillcolor="#399de5"] ;
62 -> 66 ;
67 [label="gini = 0.0\nsamples = 1\nvalue = [1, 0]", fillcolor="#e58139"] ;
61 -> 67 ;
68 [label="gini = 0.0\nsamples = 17\nvalue = [0, 25]", fillcolor="#399de5"] ;
52 -> 68 ;
69 [label="FaixaIdade <= 3.5\ngini = 0.48\nsamples = 41\nvalue = [24, 36]", fillcolor="#bddef6"] ;
51 -> 69 ;
70 [label="Sex <= 0.5\ngini = 0.49\nsamples = 32\nvalue = [21, 27]", fillcolor="#d3e9f9"] ;
69 -> 70 ;
71 [label="Familia <= 16.5\ngini = 0.39\nsamples = 17\nvalue = [17, 6]", fillcolor="#eead7f"] ;
70 -> 71 ;
72 [label="Sozinho <= 0.5\ngini = 0.31\nsamples = 16\nvalue = [17, 4]", fillcolor="#eb9f68"] ;
71 -> 72 ;
73 [label="FaixaIdade <= 2.5\ngini = 0.38\nsamples = 12\nvalue = [12, 4]", fillcolor="#eeab7b"] ;
72 -> 73 ;
74 [label="gini = 0.32\nsamples = 11\nvalue = [12, 3]", fillcolor="#eca06a"] ;
73 -> 74 ;
75 [label="gini = 0.0\nsamples = 1\nvalue = [0, 1]", fillcolor="#399de5"] ;
73 -> 75 ;
76 [label="gini = 0.0\nsamples = 4\nvalue = [5, 0]", fillcolor="#e58139"] ;
72 -> 76 ;
77 [label="gini = 0.0\nsamples = 1\nvalue = [0, 2]", fillcolor="#399de5"] ;
71 -> 77 ;
78 [label="Familia <= 4.5\ngini = 0.27\nsamples = 15\nvalue = [4, 21]", fillcolor="#5fb0ea"] ;
70 -> 78 ;
79 [label="FaixaFare <= 2.0\ngini = 0.31\nsamples = 13\nvalue = [4, 17]", fillcolor="#68b4eb"] ;
78 -> 79 ;
80 [label="gini = 0.0\nsamples = 10\nvalue = [0, 16]", fillcolor="#399de5"] ;
79 -> 80 ;
81 [label="FaixaFare <= 4.5\ngini = 0.32\nsamples = 3\nvalue = [4, 1]", fillcolor="#eca06a"] ;
79 -> 81 ;
82 [label="gini = 0.0\nsamples = 2\nvalue = [4, 0]", fillcolor="#e58139"] ;
81 -> 82 ;
83 [label="gini = 0.0\nsamples = 1\nvalue = [0, 1]", fillcolor="#399de5"] ;
81 -> 83 ;
84 [label="gini = 0.0\nsamples = 2\nvalue = [0, 4]", fillcolor="#399de5"] ;
78 -> 84 ;
85 [label="FaixaIdade <= 5.5\ngini = 0.38\nsamples = 9\nvalue = [3, 9]", fillcolor="#7bbeee"] ;
69 -> 85 ;
86 [label="gini = 0.0\nsamples = 4\nvalue = [0, 6]", fillcolor="#399de5"] ;
85 -> 86 ;
87 [label="Familia <= 4.5\ngini = 0.5\nsamples = 5\nvalue = [3, 3]", fillcolor="#ffffff"] ;
85 -> 87 ;
88 [label="Sozinho <= 0.5\ngini = 0.38\nsamples = 4\nvalue = [1, 3]", fillcolor="#7bbeee"] ;
87 -> 88 ;
89 [label="Sex <= 0.5\ngini = 0.44\nsamples = 3\nvalue = [1, 2]", fillcolor="#9ccef2"] ;
88 -> 89 ;
90 [label="gini = 0.0\nsamples = 1\nvalue = [1, 0]", fillcolor="#e58139"] ;
89 -> 90 ;
91 [label="gini = 0.0\nsamples = 2\nvalue = [0, 2]", fillcolor="#399de5"] ;
89 -> 91 ;
92 [label="gini = 0.0\nsamples = 1\nvalue = [0, 1]", fillcolor="#399de5"] ;
88 -> 92 ;
93 [label="gini = 0.0\nsamples = 1\nvalue = [2, 0]", fillcolor="#e58139"] ;
87 -> 93 ;
94 [label="Familia <= 23.5\ngini = 0.38\nsamples = 264\nvalue = [302, 104]", fillcolor="#eeac7d"] ;
0 -> 94 [labeldistance=2.5, labelangle=-45, headlabel="False"] ;
95 [label="Embarked <= 1.5\ngini = 0.37\nsamples = 260\nvalue = [302, 98]", fillcolor="#edaa79"] ;
94 -> 95 ;
96 [label="FaixaFare <= 0.5\ngini = 0.33\nsamples = 221\nvalue = [273, 71]", fillcolor="#eca26c"] ;
95 -> 96 ;
97 [label="Sex <= 0.5\ngini = 0.31\nsamples = 211\nvalue = [266, 63]", fillcolor="#eb9f68"] ;
96 -> 97 ;
98 [label="Sozinho <= 0.5\ngini = 0.22\nsamples = 156\nvalue = [217, 31]", fillcolor="#e99355"] ;
97 -> 98 ;
99 [label="FaixaIdade <= 2.0\ngini = 0.36\nsamples = 29\nvalue = [39, 12]", fillcolor="#eda876"] ;
98 -> 99 ;
100 [label="FaixaIdade <= 0.5\ngini = 0.1\nsamples = 12\nvalue = [18, 1]", fillcolor="#e68844"] ;
99 -> 100 ;
101 [label="gini = 0.15\nsamples = 7\nvalue = [11, 1]", fillcolor="#e78c4b"] ;
100 -> 101 ;
102 [label="gini = 0.0\nsamples = 5\nvalue = [7, 0]", fillcolor="#e58139"] ;
100 -> 102 ;
103 [label="FaixaIdade <= 3.5\ngini = 0.45\nsamples = 17\nvalue = [21, 11]", fillcolor="#f3c3a1"] ;
99 -> 103 ;
104 [label="gini = 0.41\nsamples = 3\nvalue = [2, 5]", fillcolor="#88c4ef"] ;
103 -> 104 ;
105 [label="gini = 0.36\nsamples = 14\nvalue = [19, 6]", fillcolor="#eda978"] ;
103 -> 105 ;
106 [label="Familia <= 5.0\ngini = 0.17\nsamples = 127\nvalue = [178, 19]", fillcolor="#e88e4e"] ;
98 -> 106 ;
107 [label="FaixaIdade <= 1.5\ngini = 0.19\nsamples = 121\nvalue = [163, 19]", fillcolor="#e89050"] ;
106 -> 107 ;
108 [label="gini = 0.23\nsamples = 81\nvalue = [112, 17]", fillcolor="#e99457"] ;
107 -> 108 ;
109 [label="gini = 0.07\nsamples = 40\nvalue = [51, 2]", fillcolor="#e68641"] ;
107 -> 109 ;
110 [label="gini = 0.0\nsamples = 6\nvalue = [15, 0]", fillcolor="#e58139"] ;
106 -> 110 ;
111 [label="FaixaIdade <= 4.5\ngini = 0.48\nsamples = 55\nvalue = [49, 32]", fillcolor="#f6d3ba"] ;
97 -> 111 ;
112 [label="Familia <= 1.5\ngini = 0.44\nsamples = 41\nvalue = [42, 20]", fillcolor="#f1bd97"] ;
111 -> 112 ;
113 [label="FaixaIdade <= 0.5\ngini = 0.48\nsamples = 33\nvalue = [29, 20]", fillcolor="#f7d8c2"] ;
112 -> 113 ;
114 [label="gini = 0.49\nsamples = 15\nvalue = [10, 13]", fillcolor="#d1e8f9"] ;
113 -> 114 ;
115 [label="gini = 0.39\nsamples = 18\nvalue = [19, 7]", fillcolor="#efaf82"] ;
113 -> 115 ;
116 [label="gini = 0.0\nsamples = 8\nvalue = [13, 0]", fillcolor="#e58139"] ;
112 -> 116 ;
117 [label="FaixaIdade <= 5.5\ngini = 0.47\nsamples = 14\nvalue = [7, 12]", fillcolor="#acd6f4"] ;
111 -> 117 ;
118 [label="gini = 0.0\nsamples = 4\nvalue = [0, 6]", fillcolor="#399de5"] ;
117 -> 118 ;
119 [label="Familia <= 15.0\ngini = 0.5\nsamples = 10\nvalue = [7, 6]", fillcolor="#fbede3"] ;
117 -> 119 ;
120 [label="gini = 0.49\nsamples = 9\nvalue = [7, 5]", fillcolor="#f8dbc6"] ;
119 -> 120 ;
121 [label="gini = 0.0\nsamples = 1\nvalue = [0, 1]", fillcolor="#399de5"] ;
119 -> 121 ;
122 [label="Sozinho <= 0.5\ngini = 0.5\nsamples = 10\nvalue = [7, 8]", fillcolor="#e6f3fc"] ;
96 -> 122 ;
123 [label="gini = 0.0\nsamples = 4\nvalue = [5, 0]", fillcolor="#e58139"] ;
122 -> 123 ;
124 [label="FaixaIdade <= 0.5\ngini = 0.32\nsamples = 6\nvalue = [2, 8]", fillcolor="#6ab6ec"] ;
122 -> 124 ;
125 [label="gini = 0.5\nsamples = 3\nvalue = [2, 2]", fillcolor="#ffffff"] ;
124 -> 125 ;
126 [label="gini = 0.0\nsamples = 3\nvalue = [0, 6]", fillcolor="#399de5"] ;
124 -> 126 ;
127 [label="Sex <= 0.5\ngini = 0.5\nsamples = 39\nvalue = [29, 27]", fillcolor="#fdf6f1"] ;
95 -> 127 ;
128 [label="FaixaIdade <= 2.5\ngini = 0.21\nsamples = 20\nvalue = [22, 3]", fillcolor="#e99254"] ;
127 -> 128 ;
129 [label="Sozinho <= 0.5\ngini = 0.27\nsamples = 14\nvalue = [16, 3]", fillcolor="#ea995e"] ;
128 -> 129 ;
130 [label="gini = 0.0\nsamples = 3\nvalue = [4, 0]", fillcolor="#e58139"] ;
129 -> 130 ;
131 [label="FaixaIdade <= 0.5\ngini = 0.32\nsamples = 11\nvalue = [12, 3]", fillcolor="#eca06a"] ;
129 -> 131 ;
132 [label="Familia <= 9.0\ngini = 0.35\nsamples = 6\nvalue = [7, 2]", fillcolor="#eca572"] ;
131 -> 132 ;
133 [label="gini = 0.41\nsamples = 5\nvalue = [5, 2]", fillcolor="#efb388"] ;
132 -> 133 ;
134 [label="gini = 0.0\nsamples = 1\nvalue = [2, 0]", fillcolor="#e58139"] ;
132 -> 134 ;
135 [label="gini = 0.28\nsamples = 5\nvalue = [5, 1]", fillcolor="#ea9a61"] ;
131 -> 135 ;
136 [label="gini = 0.0\nsamples = 6\nvalue = [6, 0]", fillcolor="#e58139"] ;
128 -> 136 ;
137 [label="Familia <= 13.5\ngini = 0.35\nsamples = 19\nvalue = [7, 24]", fillcolor="#73baed"] ;
127 -> 137 ;
138 [label="FaixaIdade <= 2.5\ngini = 0.38\nsamples = 18\nvalue = [7, 21]", fillcolor="#7bbeee"] ;
137 -> 138 ;
139 [label="Sozinho <= 0.5\ngini = 0.47\nsamples = 12\nvalue = [7, 12]", fillcolor="#acd6f4"] ;
138 -> 139 ;
140 [label="gini = 0.0\nsamples = 2\nvalue = [3, 0]", fillcolor="#e58139"] ;
139 -> 140 ;
141 [label="FaixaIdade <= 0.5\ngini = 0.38\nsamples = 10\nvalue = [4, 12]", fillcolor="#7bbeee"] ;
139 -> 141 ;
142 [label="gini = 0.42\nsamples = 5\nvalue = [3, 7]", fillcolor="#8ec7f0"] ;
141 -> 142 ;
143 [label="gini = 0.28\nsamples = 5\nvalue = [1, 5]", fillcolor="#61b1ea"] ;
141 -> 143 ;
144 [label="gini = 0.0\nsamples = 6\nvalue = [0, 9]", fillcolor="#399de5"] ;
138 -> 144 ;
145 [label="gini = 0.0\nsamples = 1\nvalue = [0, 3]", fillcolor="#399de5"] ;
137 -> 145 ;
146 [label="gini = 0.0\nsamples = 4\nvalue = [0, 6]", fillcolor="#399de5"] ;
94 -> 146 ;
}